digraph Tree {
node [shape=box, style="filled", color="black"] ;
0 [label="X[1] <= 0.041\ngini = 0.5\nsamples = 750\nvalue = [372, 378]", fillcolor="#fcfdff"] ;
1 [label="X[0] <= -0.915\ngini = 0.3\nsamples = 398\nvalue = [73, 325]", fillcolor="#65b3eb"] ;
0 -> 1 [labeldistance=2.5, labelangle=45, headlabel="True"] ;
3 [label="X[0] <= -1.182\ngini = 0.114\nsamples = 33\nvalue = [31, 2]", fillcolor="#e78946"] ;
1 -> 3 ;
37 [label="gini = 0.0\nsamples = 28\nvalue = [28, 0]", fillcolor="#e58139"] ;
3 -> 37 ;
38 [label="gini = 0.48\nsamples = 5\nvalue = [3, 2]", fillcolor="#f6d5bd"] ;
3 -> 38 ;
4 [label="X[1] <= -0.637\ngini = 0.204\nsamples = 365\nvalue = [42, 323]", fillcolor="#53aae8"] ;
1 -> 4 ;
7 [label="gini = 0.08\nsamples = 217\nvalue = [9, 208]", fillcolor="#42a1e6"] ;
4 -> 7 ;
8 [label="X[0] <= 0.022\ngini = 0.347\nsamples = 148\nvalue = [33, 115]", fillcolor="#72b9ec"] ;
4 -> 8 ;
9 [label="gini = 0.071\nsamples = 54\nvalue = [2, 52]", fillcolor="#41a1e6"] ;
8 -> 9 ;
10 [label="X[0] <= 0.878\ngini = 0.442\nsamples = 94\nvalue = [31, 63]", fillcolor="#9acdf2"] ;
8 -> 10 ;
11 [label="X[1] <= -0.446\ngini = 0.45\nsamples = 41\nvalue = [27, 14]", fillcolor="#f2c2a0"] ;
10 -> 11 ;
27 [label="X[1] <= -0.536\ngini = 0.497\nsamples = 13\nvalue = [6, 7]", fillcolor="#e3f1fb"] ;
11 -> 27 ;
29 [label="gini = 0.278\nsamples = 6\nvalue = [5, 1]", fillcolor="#ea9a61"] ;
27 -> 29 ;
30 [label="X[0] <= 0.531\ngini = 0.245\nsamples = 7\nvalue = [1, 6]", fillcolor="#5aade9"] ;
27 -> 30 ;
31 [label="gini = 0.0\nsamples = 6\nvalue = [0, 6]", fillcolor="#399de5"] ;
30 -> 31 ;
32 [label="gini = 0.0\nsamples = 1\nvalue = [1, 0]", fillcolor="#e58139"] ;
30 -> 32 ;
28 [label="X[0] <= 0.352\ngini = 0.375\nsamples = 28\nvalue = [21, 7]", fillcolor="#eeab7b"] ;
11 -> 28 ;
33 [label="gini = 0.0\nsamples = 8\nvalue = [8, 0]", fillcolor="#e58139"] ;
28 -> 33 ;
34 [label="X[0] <= 0.45\ngini = 0.455\nsamples = 20\nvalue = [13, 7]", fillcolor="#f3c5a4"] ;
28 -> 34 ;
35 [label="gini = 0.0\nsamples = 3\nvalue = [0, 3]", fillcolor="#399de5"] ;
34 -> 35 ;
36 [label="X[0] <= 0.611\ngini = 0.36\nsamples = 17\nvalue = [13, 4]", fillcolor="#eda876"] ;
34 -> 36 ;
41 [label="gini = 0.0\nsamples = 7\nvalue = [7, 0]", fillcolor="#e58139"] ;
36 -> 41 ;
42 [label="X[0] <= 0.763\ngini = 0.48\nsamples = 10\nvalue = [6, 4]", fillcolor="#f6d5bd"] ;
36 -> 42 ;
43 [label="gini = 0.49\nsamples = 7\nvalue = [3, 4]", fillcolor="#cee6f8"] ;
42 -> 43 ;
44 [label="gini = 0.0\nsamples = 3\nvalue = [3, 0]", fillcolor="#e58139"] ;
42 -> 44 ;
12 [label="X[1] <= -0.591\ngini = 0.14\nsamples = 53\nvalue = [4, 49]", fillcolor="#49a5e7"] ;
10 -> 12 ;
23 [label="X[1] <= -0.61\ngini = 0.5\nsamples = 4\nvalue = [2, 2]", fillcolor="#ffffff"] ;
12 -> 23 ;
25 [label="gini = 0.0\nsamples = 2\nvalue = [0, 2]", fillcolor="#399de5"] ;
23 -> 25 ;
26 [label="gini = 0.0\nsamples = 2\nvalue = [2, 0]", fillcolor="#e58139"] ;
23 -> 26 ;
24 [label="gini = 0.078\nsamples = 49\nvalue = [2, 47]", fillcolor="#41a1e6"] ;
12 -> 24 ;
2 [label="X[0] <= 1.13\ngini = 0.256\nsamples = 352\nvalue = [299, 53]", fillcolor="#ea975c"] ;
0 -> 2 [labeldistance=2.5, labelangle=-45, headlabel="False"] ;
5 [label="X[1] <= 0.746\ngini = 0.157\nsamples = 327\nvalue = [299, 28]", fillcolor="#e78d4c"] ;
2 -> 5 ;
13 [label="X[0] <= -0.884\ngini = 0.305\nsamples = 144\nvalue = [117, 27]", fillcolor="#eb9e67"] ;
5 -> 13 ;
15 [label="gini = 0.0\nsamples = 51\nvalue = [51, 0]", fillcolor="#e58139"] ;
13 -> 15 ;
16 [label="X[0] <= -0.327\ngini = 0.412\nsamples = 93\nvalue = [66, 27]", fillcolor="#f0b58a"] ;
13 -> 16 ;
17 [label="X[0] <= -0.601\ngini = 0.486\nsamples = 36\nvalue = [15, 21]", fillcolor="#c6e3f8"] ;
16 -> 17 ;
19 [label="X[1] <= 0.2\ngini = 0.48\nsamples = 20\nvalue = [12, 8]", fillcolor="#f6d5bd"] ;
17 -> 19 ;
21 [label="gini = 0.0\nsamples = 2\nvalue = [0, 2]", fillcolor="#399de5"] ;
19 -> 21 ;
22 [label="gini = 0.444\nsamples = 18\nvalue = [12, 6]", fillcolor="#f2c09c"] ;
19 -> 22 ;
20 [label="gini = 0.305\nsamples = 16\nvalue = [3, 13]", fillcolor="#67b4eb"] ;
17 -> 20 ;
18 [label="X[0] <= 0.904\ngini = 0.188\nsamples = 57\nvalue = [51, 6]", fillcolor="#e89050"] ;
16 -> 18 ;
39 [label="X[0] <= -0.145\ngini = 0.14\nsamples = 53\nvalue = [49, 4]", fillcolor="#e78b49"] ;
18 -> 39 ;
45 [label="X[0] <= -0.209\ngini = 0.42\nsamples = 10\nvalue = [7, 3]", fillcolor="#f0b78e"] ;
39 -> 45 ;
47 [label="gini = 0.219\nsamples = 8\nvalue = [7, 1]", fillcolor="#e99355"] ;
45 -> 47 ;
48 [label="gini = 0.0\nsamples = 2\nvalue = [0, 2]", fillcolor="#399de5"] ;
45 -> 48 ;
46 [label="gini = 0.045\nsamples = 43\nvalue = [42, 1]", fillcolor="#e6843e"] ;
39 -> 46 ;
40 [label="gini = 0.5\nsamples = 4\nvalue = [2, 2]", fillcolor="#ffffff"] ;
18 -> 40 ;
14 [label="gini = 0.011\nsamples = 183\nvalue = [182, 1]", fillcolor="#e5823a"] ;
5 -> 14 ;
6 [label="gini = 0.0\nsamples = 25\nvalue = [0, 25]", fillcolor="#399de5"] ;
2 -> 6 ;
}